#pragma once

#include <stdint.h>

#define TEMPO_LR_N_CLASS 27
#define TEMPO_LR_N_FEAT  200

const float TEMPO_LR_W[TEMPO_LR_N_CLASS][TEMPO_LR_N_FEAT] = {
  { 0.000000f, -0.003114f, 0.027665f, 0.026726f, 0.015759f, 0.022901f, 0.033792f, 0.021432f, -0.017763f, -0.048424f, -0.053753f, -0.050895f, -0.048145f, -0.046996f, -0.046770f, -0.056270f, -0.075794f, -0.090749f, -0.097561f, -0.091367f, -0.073422f, -0.035569f, 0.005028f, 0.045116f, 0.078057f, 0.094927f, 0.081145f, 0.042510f, 0.001425f, -0.026081f, -0.047367f, -0.054853f, -0.055760f, -0.052199f, -0.042556f, -0.034784f, -0.025515f, -0.021873f, -0.016916f, -0.004210f, 0.003422f, 0.004891f, 0.006530f, 0.005492f, -0.004206f, -0.017469f, -0.024768f, -0.012008f, 0.022671f, 0.070141f, 0.090628f, 0.058549f, 0.005776f, -0.027868f, -0.048558f, -0.069482f, -0.085618f, -0.091716f, -0.083963f, -0.064577f, -0.049476f, -0.049270f, -0.063347f, -0.073468f, -0.058248f, -0.041369f, -0.036751f, -0.040353f, -0.042329f, -0.032394f, -0.009549f, 0.022664f, 0.070239f, 0.114405f, 0.143897f, 0.175286f, 0.188092f, 0.171869f, 0.134109f, 0.086956f, 0.045307f, 0.011668f, -0.013966f, -0.028151f, -0.038208f, -0.047060f, -0.052314f, -0.042994f, -0.036040f, -0.043530f, -0.058190f, -0.076067f, -0.091561f, -0.089659f, -0.066814f, -0.036430f, -0.021017f, -0.015071f, -0.005109f, 0.015705f, 0.047518f, 0.064903f, 0.050656f, 0.028347f, 0.020756f, 0.020807f, 0.020215f, -0.000273f, -0.020566f, -0.019201f, -0.008392f, 0.004038f, 0.021169f, 0.042558f, 0.061979f, 0.069822f, 0.050813f, 0.006535f, -0.028070f, -0.045153f, -0.039600f, -0.015124f, 0.004918f, 0.016664f, 0.018353f, 0.021665f, 0.041105f, 0.055873f, 0.029197f, -0.017627f, -0.055530f, -0.070812f, -0.056550f, -0.028447f, -0.013837f, -0.022397f, -0.046886f, -0.061580f, -0.066362f, -0.066249f, -0.064727f, -0.064003f, -0.055055f, -0.037964f, -0.019903f, 0.003164f, 0.035919f, 0.070572f, 0.108175f, 0.148054f, 0.183790f, 0.205844f, 0.232882f, 0.227656f, 0.189986f, 0.141341f, 0.087160f, 0.041536f, 0.013526f, -0.006838f, -0.017924f, -0.029228f, -0.046513f, -0.061603f, -0.068822f, -0.070341f, -0.073605f, -0.069358f, -0.058112f, -0.045712f, -0.032853f, -0.027068f, -0.026086f, -0.018612f, 0.003509f, 0.029604f, 0.042012f, 0.032216f, 0.006203f, -0.015080f, -0.024875f, -0.021609f, -0.022510f, -0.040266f, -0.048505f, -0.042726f, -0.025664f, -0.007833f, 0.016559f, 0.040611f, 0.051513f, 0.040141f, 0.031516f, 0.022071f, 0.013146f, 0.005904f, 0.010830f, 0.032852f, 0.067623f, 0.101531f },
  { 0.000000f, -0.023256f, -0.032550f, -0.024317f, 0.012297f, 0.049253f, 0.039795f, -0.013898f, -0.057354f, -0.064730f, -0.054537f, -0.032837f, -0.004543f, 0.028831f, 0.056839f, 0.058597f, 0.049737f, 0.050677f, 0.059444f, 0.067140f, 0.066319f, 0.052494f, 0.028588f, 0.005937f, -0.014262f, -0.029251f, -0.026278f, -0.015889f, -0.007391f, 0.003152f, 0.021219f, 0.028041f, 0.029436f, 0.016465f, -0.013541f, -0.022245f, -0.012805f, 0.007687f, 0.032443f, 0.058417f, 0.071643f, 0.063891f, 0.058026f, 0.051204f, 0.035630f, 0.009216f, -0.013999f, -0.036592f, -0.063810f, -0.078702f, -0.073646f, -0.061112f, -0.056091f, -0.063727f, -0.080041f, -0.086296f, -0.071736f, -0.034901f, 0.012758f, 0.067156f, 0.118902f, 0.164192f, 0.187292f, 0.171560f, 0.104877f, 0.044841f, 0.012830f, -0.007204f, -0.043149f, -0.079326f, -0.094602f, -0.094212f, -0.088636f, -0.087447f, -0.085317f, -0.072018f, -0.057826f, -0.045365f, -0.037207f, -0.025467f, -0.007087f, 0.015035f, 0.036262f, 0.038942f, 0.027455f, 0.021363f, 0.024202f, 0.016582f, 0.010292f, 0.007162f, 0.012269f, 0.018426f, 0.005373f, -0.017367f, -0.032673f, -0.040961f, -0.047013f, -0.050267f, -0.045382f, -0.021681f, 0.005798f, 0.019087f, 0.021416f, 0.024850f, 0.030905f, 0.027610f, 0.007749f, -0.022187f, -0.047415f, -0.060301f, -0.059804f, -0.057025f, -0.070213f, -0.085838f, -0.083992f, -0.074624f, -0.071962f, -0.054431f, -0.011192f, 0.037016f, 0.050318f, 0.063451f, 0.090792f, 0.117365f, 0.135145f, 0.133510f, 0.097065f, 0.045927f, 0.001960f, -0.023646f, -0.033798f, -0.035002f, -0.034157f, -0.033389f, -0.031070f, -0.038201f, -0.053728f, -0.064936f, -0.061932f, -0.050777f, -0.039405f, -0.021441f, 0.012019f, 0.045161f, 0.049473f, 0.045077f, 0.039973f, 0.034146f, 0.030169f, 0.005067f, -0.023293f, -0.026440f, -0.022316f, -0.016159f, -0.013885f, -0.022879f, -0.053068f, -0.074507f, -0.074262f, -0.057896f, -0.037618f, -0.001865f, 0.053015f, 0.100046f, 0.104977f, 0.078014f, 0.058466f, 0.044038f, 0.020890f, -0.006551f, -0.017310f, -0.028073f, -0.042321f, -0.061114f, -0.075252f, -0.075517f, -0.059712f, -0.041403f, -0.033583f, -0.017417f, 0.004006f, 0.022508f, 0.025074f, 0.031516f, 0.053274f, 0.080007f, 0.101250f, 0.096539f, 0.059164f, 0.024774f, 0.012881f, 0.016854f, 0.008205f, -0.012837f, -0.031224f, -0.052696f, -0.070841f, -0.066469f, -0.055213f, -0.047533f },
  { 0.000000f, -0.069534f, -0.039164f, 0.005832f, 0.047503f, 0.041859f, 0.003967f, -0.036722f, -0.053984f, -0.045584f, -0.029506f, -0.008057f, 0.020826f, 0.041620f, 0.046446f, 0.038821f, 0.027449f, 0.019666f, 0.014933f, 0.025798f, 0.019174f, -0.018394f, -0.066976f, -0.104672f, -0.116244f, -0.088143f, -0.036681f, 0.023840f, 0.084058f, 0.143494f, 0.181612f, 0.154216f, 0.085873f, 0.044246f, 0.023709f, -0.008039f, -0.041359f, -0.061204f, -0.056217f, -0.043520f, -0.029484f, -0.006807f, 0.013247f, 0.023941f, 0.025049f, 0.025085f, 0.017991f, 0.006809f, -0.014810f, -0.039144f, -0.056511f, -0.057377f, -0.047425f, -0.030243f, -0.008840f, 0.008305f, 0.025691f, 0.066457f, 0.116943f, 0.134528f, 0.125901f, 0.111196f, 0.099085f, 0.070413f, 0.034402f, -0.006751f, -0.035698f, -0.048679f, -0.035272f, -0.024673f, -0.031195f, -0.038772f, -0.029376f, -0.006925f, 0.013050f, 0.013687f, -0.002798f, -0.017332f, -0.027262f, -0.031253f, -0.035572f, -0.032460f, -0.028836f, -0.032085f, -0.021595f, -0.003486f, 0.001290f, 0.023661f, 0.040804f, 0.055155f, 0.076490f, 0.081803f, 0.073358f, 0.058271f, 0.041988f, 0.038849f, 0.035471f, 0.022026f, 0.005353f, -0.016313f, -0.033836f, -0.044111f, -0.039850f, -0.032492f, -0.025875f, -0.013352f, 0.013012f, 0.034948f, 0.023682f, -0.004135f, -0.014654f, -0.024420f, -0.034588f, -0.048978f, -0.060001f, -0.057290f, -0.036631f, -0.005083f, 0.028126f, 0.042270f, 0.060948f, 0.077944f, 0.077130f, 0.073293f, 0.071847f, 0.064075f, 0.050144f, 0.016817f, -0.007003f, -0.020501f, -0.028032f, -0.041327f, -0.046535f, -0.045371f, -0.039537f, -0.020399f, 0.005020f, 0.007938f, -0.015463f, -0.028080f, -0.033358f, -0.038773f, -0.049826f, -0.055135f, -0.044663f, -0.025418f, -0.001982f, 0.012444f, 0.036941f, 0.072441f, 0.087430f, 0.077668f, 0.062907f, 0.038310f, 0.014743f, -0.008371f, -0.028047f, -0.046593f, -0.054478f, -0.049580f, -0.043282f, -0.042364f, -0.045707f, -0.032586f, -0.007564f, 0.020387f, 0.042510f, 0.035611f, 0.009206f, -0.020358f, -0.053952f, -0.078684f, -0.087813f, -0.086407f, -0.081184f, -0.078322f, -0.070653f, -0.051451f, -0.021647f, 0.023068f, 0.070163f, 0.105623f, 0.135152f, 0.126624f, 0.085033f, 0.036470f, -0.001847f, -0.035250f, -0.056170f, -0.066082f, -0.068556f, -0.054509f, -0.032480f, -0.008742f, 0.005549f, 0.009902f, -0.000657f, -0.014141f, -0.018862f, -0.016468f },
  { 0.000000f, 0.000977f, 0.016840f, 0.038198f, 0.059773f, 0.070210f, 0.061478f, 0.044839f, 0.026469f, 0.004954f, -0.008915f, -0.021941f, -0.033957f, -0.036215f, -0.029446f, 0.001470f, 0.055235f, 0.125825f, 0.192761f, 0.210652f, 0.180515f, 0.132147f, 0.089468f, 0.046303f, 0.007282f, -0.028478f, -0.053035f, -0.055540f, -0.045523f, -0.023017f, -0.009194f, -0.011627f, -0.009771f, -0.000929f, 0.014832f, 0.028505f, 0.044679f, 0.054184f, 0.030710f, -0.002688f, -0.012734f, -0.005736f, -0.010080f, -0.031034f, -0.043191f, -0.046170f, -0.049178f, -0.057024f, -0.054019f, -0.056683f, -0.060687f, -0.042324f, -0.022334f, -0.016285f, -0.014730f, 0.004504f, 0.052775f, 0.100386f, 0.128494f, 0.133585f, 0.117575f, 0.080396f, 0.016525f, -0.040987f, -0.052893f, -0.045463f, -0.044971f, -0.054772f, -0.061899f, -0.062252f, -0.064720f, -0.074102f, -0.081101f, -0.084327f, -0.078199f, -0.051015f, -0.011937f, 0.017035f, 0.037855f, 0.028233f, 0.010235f, 0.002894f, -0.010130f, -0.017547f, -0.018376f, -0.021557f, -0.017806f, -0.022272f, -0.021326f, -0.022009f, -0.028066f, -0.039457f, -0.039736f, -0.023833f, 0.014437f, 0.038319f, 0.038504f, 0.025576f, 0.001197f, -0.028313f, -0.055883f, -0.076832f, -0.095653f, -0.101833f, -0.092904f, -0.086756f, -0.098328f, -0.110637f, -0.110516f, -0.084287f, -0.048746f, -0.007260f, 0.047686f, 0.082793f, 0.095961f, 0.110824f, 0.135409f, 0.146503f, 0.132701f, 0.099640f, 0.071780f, 0.042699f, 0.018671f, -0.000075f, -0.008548f, -0.012994f, -0.018528f, -0.033198f, -0.047354f, -0.039336f, -0.017639f, -0.000107f, 0.005869f, 0.006760f, -0.004152f, -0.032070f, -0.058827f, -0.064867f, -0.056721f, -0.042458f, -0.033252f, -0.027380f, -0.028635f, -0.035341f, -0.044310f, -0.036572f, -0.018389f, 0.003167f, 0.005077f, 0.000694f, -0.006484f, -0.006642f, 0.010050f, 0.040534f, 0.063434f, 0.055100f, 0.011368f, -0.033988f, -0.069261f, -0.088691f, -0.093699f, -0.097965f, -0.088575f, -0.089073f, -0.103499f, -0.101459f, -0.075419f, -0.047216f, -0.026040f, -0.011717f, -0.007230f, 0.013322f, 0.038250f, 0.062686f, 0.093532f, 0.127267f, 0.114173f, 0.072991f, 0.030791f, 0.008528f, -0.000470f, -0.021907f, -0.057193f, -0.081500f, -0.082492f, -0.066978f, -0.052038f, -0.042087f, -0.033295f, -0.012968f, 0.015650f, 0.037661f, 0.053924f, 0.077528f, 0.097155f, 0.093519f, 0.047206f, -0.018802f, -0.059696f, -0.065492f },
  { 0.000000f, -0.030785f, 0.001088f, 0.007238f, -0.007223f, -0.025178f, -0.031068f, -0.033883f, -0.035213f, -0.033489f, -0.030163f, -0.021652f, -0.008560f, 0.001356f, 0.004702f, -0.002471f, -0.015614f, -0.031166f, -0.044929f, -0.054305f, -0.059773f, -0.059684f, -0.051927f, -0.038739f, -0.023859f, 0.005087f, 0.048417f, 0.090767f, 0.124335f, 0.142562f, 0.125370f, 0.081392f, 0.030420f, -0.009469f, -0.039831f, -0.056707f, -0.066145f, -0.070606f, -0.065118f, -0.050542f, -0.034434f, -0.017467f, -0.002573f, 0.003087f, -0.002041f, -0.014244f, -0.026834f, -0.035160f, -0.042147f, -0.047722f, -0.050444f, -0.039559f, -0.013663f, 0.022250f, 0.060842f, 0.108281f, 0.143036f, 0.140546f, 0.118316f, 0.086123f, 0.058236f, 0.034273f, 0.005949f, -0.028707f, -0.052527f, -0.060406f, -0.057375f, -0.046686f, -0.032289f, -0.020270f, -0.010606f, -0.003976f, -0.003619f, -0.010424f, -0.023924f, -0.035238f, -0.044366f, -0.051062f, -0.053687f, -0.049862f, -0.037647f, -0.012737f, 0.033290f, 0.085818f, 0.124122f, 0.132739f, 0.111742f, 0.091121f, 0.072606f, 0.054000f, 0.025489f, 0.003533f, -0.017685f, -0.038091f, -0.055924f, -0.059533f, -0.050516f, -0.037819f, -0.024736f, -0.013347f, -0.010377f, -0.013637f, -0.019006f, -0.024213f, -0.032497f, -0.042407f, -0.045570f, -0.038056f, -0.023620f, -0.006723f, 0.014966f, 0.044508f, 0.086036f, 0.114452f, 0.120971f, 0.117469f, 0.098857f, 0.070869f, 0.039776f, 0.008711f, -0.013852f, -0.032642f, -0.043268f, -0.049076f, -0.050978f, -0.048817f, -0.041415f, -0.028211f, -0.014759f, -0.007576f, -0.006074f, -0.008928f, -0.014094f, -0.021417f, -0.027999f, -0.031342f, -0.024752f, -0.015518f, -0.005108f, 0.012310f, 0.030780f, 0.051535f, 0.067263f, 0.079083f, 0.086338f, 0.083807f, 0.072650f, 0.046150f, 0.008836f, -0.019961f, -0.030258f, -0.034646f, -0.038652f, -0.046568f, -0.053031f, -0.048712f, -0.039036f, -0.026961f, -0.019792f, -0.017615f, -0.018398f, -0.019295f, -0.023564f, -0.032104f, -0.034400f, -0.030539f, -0.022488f, -0.004964f, 0.023309f, 0.057214f, 0.088568f, 0.100146f, 0.096864f, 0.084876f, 0.068282f, 0.048474f, 0.031033f, 0.007211f, -0.016805f, -0.035622f, -0.045439f, -0.048740f, -0.046435f, -0.039805f, -0.032984f, -0.023932f, -0.017620f, -0.016173f, -0.021091f, -0.030778f, -0.039758f, -0.040852f, -0.041171f, -0.043321f, -0.046203f, -0.034965f, -0.005060f, 0.029765f, 0.058405f, 0.076643f },
  { 0.000000f, -0.014711f, 0.011946f, 0.008342f, -0.034171f, -0.084016f, -0.100071f, -0.075680f, -0.021067f, 0.034964f, 0.075668f, 0.090119f, 0.089679f, 0.086553f, 0.077083f, 0.058058f, 0.035943f, 0.013425f, -0.027294f, -0.058356f, -0.075588f, -0.078614f, -0.060631f, -0.029723f, 0.018205f, 0.062304f, 0.086877f, 0.094974f, 0.085407f, 0.058349f, 0.013235f, -0.047858f, -0.088240f, -0.095141f, -0.082150f, -0.065422f, -0.035866f, 0.001788f, 0.031036f, 0.042498f, 0.043810f, 0.044940f, 0.042806f, 0.031476f, 0.016977f, -0.016193f, -0.041678f, -0.041113f, -0.035117f, -0.012566f, 0.028845f, 0.074634f, 0.108742f, 0.137476f, 0.162183f, 0.137965f, 0.070263f, 0.000640f, -0.042299f, -0.060206f, -0.065868f, -0.067242f, -0.062279f, -0.045758f, -0.016419f, 0.006048f, 0.014784f, 0.008379f, -0.005326f, -0.021778f, -0.029680f, -0.033828f, -0.038814f, -0.039623f, -0.035484f, -0.027575f, -0.027608f, -0.022306f, 0.001354f, 0.036691f, 0.065584f, 0.077775f, 0.059276f, 0.020777f, -0.024901f, -0.064899f, -0.081279f, -0.076616f, -0.061158f, -0.043516f, -0.028062f, -0.003006f, 0.021224f, 0.037429f, 0.032416f, 0.018216f, 0.006006f, -0.000659f, -0.009776f, -0.029392f, -0.049937f, -0.062849f, -0.054459f, -0.025695f, 0.009968f, 0.049618f, 0.076914f, 0.093098f, 0.098659f, 0.078434f, 0.033421f, -0.016781f, -0.062207f, -0.089441f, -0.095286f, -0.090686f, -0.072877f, -0.047542f, -0.024787f, 0.001341f, 0.023032f, 0.033296f, 0.026424f, 0.007913f, -0.022283f, -0.052799f, -0.079872f, -0.088565f, -0.074201f, -0.051801f, -0.012441f, 0.032561f, 0.069336f, 0.101711f, 0.117119f, 0.108285f, 0.078051f, 0.035398f, -0.007807f, -0.049596f, -0.082161f, -0.101770f, -0.101358f, -0.081248f, -0.057700f, -0.034276f, -0.008179f, 0.018895f, 0.037468f, 0.030619f, 0.008642f, -0.018314f, -0.044655f, -0.072354f, -0.104181f, -0.121594f, -0.111759f, -0.078484f, -0.026667f, 0.033376f, 0.093356f, 0.149247f, 0.175045f, 0.145833f, 0.064379f, -0.012171f, -0.048400f, -0.046697f, -0.038188f, -0.050277f, -0.055178f, -0.038869f, -0.013047f, 0.011423f, 0.019896f, 0.016987f, -0.003450f, -0.027876f, -0.047394f, -0.072154f, -0.095788f, -0.104245f, -0.101964f, -0.079991f, -0.032076f, 0.023290f, 0.074337f, 0.120609f, 0.133919f, 0.118160f, 0.083148f, 0.031029f, -0.016695f, -0.059955f, -0.087829f, -0.094741f, -0.077743f, -0.061178f, -0.043861f, -0.027069f },
  { 0.000000f, -0.013745f, -0.000412f, 0.013210f, 0.041049f, 0.074326f, 0.081950f, 0.058882f, 0.028453f, 0.017973f, 0.027969f, 0.034006f, 0.027932f, 0.016416f, 0.011726f, 0.005558f, -0.015156f, -0.048351f, -0.078085f, -0.089950f, -0.074731f, -0.042708f, -0.013162f, 0.014682f, 0.047964f, 0.080329f, 0.103183f, 0.107693f, 0.090615f, 0.060685f, 0.025460f, -0.014364f, -0.043823f, -0.046368f, -0.034293f, -0.025160f, -0.012974f, 0.002545f, 0.013571f, 0.020073f, 0.018997f, 0.016225f, -0.011884f, -0.053338f, -0.082674f, -0.094334f, -0.096001f, -0.092268f, -0.070615f, -0.015376f, 0.050366f, 0.091305f, 0.097754f, 0.085062f, 0.065038f, 0.040552f, 0.009945f, -0.024563f, -0.051541f, -0.066893f, -0.072107f, -0.067662f, -0.055099f, -0.038431f, -0.008633f, 0.019757f, 0.024726f, 0.020896f, 0.002580f, -0.016450f, -0.044010f, -0.066198f, -0.073230f, -0.073334f, -0.075860f, -0.054518f, -0.011141f, 0.028908f, 0.054646f, 0.061414f, 0.050934f, 0.026308f, -0.005928f, -0.041896f, -0.059478f, -0.043000f, -0.020218f, -0.014978f, -0.020222f, -0.024356f, -0.022631f, -0.016056f, -0.021636f, -0.035667f, -0.034835f, -0.029191f, -0.030293f, -0.045940f, -0.062325f, -0.067565f, -0.057892f, -0.040010f, -0.011136f, 0.032748f, 0.076538f, 0.105982f, 0.111394f, 0.085984f, 0.049074f, 0.012938f, -0.017423f, -0.039638f, -0.043637f, -0.033436f, -0.024911f, -0.019211f, -0.011427f, -0.015366f, -0.030002f, -0.047965f, -0.051306f, -0.048307f, -0.059433f, -0.074793f, -0.077980f, -0.075761f, -0.055156f, -0.010714f, 0.025229f, 0.050067f, 0.074249f, 0.102937f, 0.119879f, 0.108592f, 0.074233f, 0.027286f, -0.018491f, -0.046998f, -0.061740f, -0.049768f, -0.027841f, -0.007349f, 0.011228f, 0.027123f, 0.045367f, 0.042310f, 0.026955f, 0.007045f, -0.018228f, -0.040967f, -0.057033f, -0.070531f, -0.079683f, -0.075330f, -0.045073f, 0.006282f, 0.053461f, 0.077066f, 0.076819f, 0.048288f, 0.017945f, -0.000544f, -0.029656f, -0.060290f, -0.065076f, -0.047280f, -0.014590f, 0.006618f, 0.025275f, 0.041654f, 0.054600f, 0.062511f, 0.052760f, 0.032886f, 0.011005f, -0.006036f, -0.024284f, -0.060717f, -0.089500f, -0.077781f, -0.030717f, 0.027023f, 0.083375f, 0.140590f, 0.169065f, 0.160897f, 0.123585f, 0.070143f, 0.020387f, -0.022561f, -0.046433f, -0.041811f, -0.036452f, -0.034298f, -0.022614f, -0.003476f, 0.012958f, 0.013262f, -0.002870f, -0.016641f },
  { 0.000000f, 0.036229f, -0.032846f, -0.079998f, -0.092823f, -0.045662f, 0.016874f, 0.043227f, 0.035020f, 0.030787f, 0.028567f, 0.027507f, 0.027546f, 0.041871f, 0.054483f, 0.055645f, 0.029653f, -0.010419f, -0.035991f, -0.046544f, -0.052218f, -0.052851f, -0.031755f, 0.000310f, 0.033885f, 0.046459f, 0.050568f, 0.065448f, 0.062097f, 0.016621f, -0.046184f, -0.083746f, -0.095500f, -0.097808f, -0.094444f, -0.073085f, -0.030761f, 0.010595f, 0.035614f, 0.036805f, 0.016671f, -0.020331f, -0.058231f, -0.078923f, -0.069446f, -0.045521f, -0.020226f, 0.008119f, 0.025515f, 0.044145f, 0.059797f, 0.058673f, 0.054398f, 0.042989f, 0.042514f, 0.042332f, 0.024462f, -0.006872f, -0.040352f, -0.069909f, -0.078890f, -0.062694f, -0.017177f, 0.035124f, 0.056869f, 0.033426f, 0.000993f, -0.030389f, -0.053562f, -0.061887f, -0.045752f, -0.011977f, 0.018950f, 0.049261f, 0.088908f, 0.114088f, 0.106433f, 0.074472f, 0.028656f, -0.002222f, -0.002226f, 0.003311f, 0.002846f, -0.000474f, -0.014849f, -0.050881f, -0.078083f, -0.091112f, -0.062479f, -0.000491f, 0.027834f, 0.021888f, 0.010234f, -0.008006f, -0.028433f, -0.039779f, -0.045175f, -0.043096f, -0.024986f, 0.006824f, 0.040774f, 0.072745f, 0.089439f, 0.089147f, 0.082796f, 0.067239f, 0.052992f, 0.040789f, 0.017893f, -0.017585f, -0.052388f, -0.088212f, -0.108057f, -0.107622f, -0.074148f, -0.021993f, 0.003972f, -0.007830f, -0.031205f, -0.035878f, -0.033335f, -0.030190f, -0.011119f, 0.026970f, 0.068116f, 0.110125f, 0.117820f, 0.084360f, 0.079735f, 0.113832f, 0.126340f, 0.091149f, 0.031280f, -0.019609f, -0.049983f, -0.057339f, -0.059754f, -0.055853f, -0.038290f, -0.011902f, 0.020274f, 0.039649f, 0.025631f, -0.009627f, -0.043058f, -0.069185f, -0.099851f, -0.123580f, -0.119358f, -0.091906f, -0.047816f, -0.001898f, 0.045444f, 0.080242f, 0.095055f, 0.100149f, 0.082655f, 0.047637f, 0.001714f, -0.034635f, -0.060861f, -0.081434f, -0.086331f, -0.051909f, 0.019860f, 0.070405f, 0.078753f, 0.056623f, 0.042918f, 0.047461f, 0.039614f, -0.002019f, -0.051266f, -0.085103f, -0.096278f, -0.080528f, -0.042435f, 0.015505f, 0.080672f, 0.125813f, 0.131165f, 0.121664f, 0.116827f, 0.101867f, 0.068982f, 0.034323f, 0.001884f, -0.026632f, -0.054481f, -0.065582f, -0.038573f, 0.000393f, 0.018568f, 0.006197f, -0.019555f, -0.037610f, -0.043376f, -0.064991f, -0.088355f, -0.084513f },
  { 0.000000f, 0.055343f, 0.007363f, -0.015720f, -0.020186f, -0.013319f, -0.007076f, -0.003495f, -0.008836f, -0.007905f, 0.001040f, 0.005264f, 0.003700f, 0.005157f, 0.011055f, 0.005009f, -0.022426f, -0.054578f, -0.076333f, -0.084180f, -0.070592f, -0.028901f, 0.030329f, 0.094978f, 0.128534f, 0.107607f, 0.056628f, 0.020784f, 0.005858f, -0.012944f, -0.024388f, -0.019261f, -0.009010f, 0.004277f, 0.001429f, -0.005675f, -0.006202f, 0.007632f, 0.020563f, 0.008657f, -0.025122f, -0.065191f, -0.091816f, -0.090685f, -0.071559f, -0.039716f, 0.001925f, 0.046260f, 0.081010f, 0.084351f, 0.049241f, 0.009212f, -0.022156f, -0.051586f, -0.075088f, -0.088467f, -0.073372f, -0.034943f, -0.006864f, 0.002839f, 0.007955f, 0.024162f, 0.055870f, 0.080516f, 0.064841f, 0.019543f, -0.038597f, -0.080277f, -0.091724f, -0.066074f, -0.003737f, 0.080517f, 0.149304f, 0.166632f, 0.132250f, 0.070311f, 0.011734f, -0.032695f, -0.056886f, -0.067596f, -0.071863f, -0.077260f, -0.071428f, -0.042325f, 0.008506f, 0.053408f, 0.070928f, 0.058201f, 0.021706f, -0.025252f, -0.066675f, -0.087925f, -0.080675f, -0.040742f, 0.032803f, 0.120307f, 0.182113f, 0.202440f, 0.183430f, 0.122689f, 0.049993f, -0.006985f, -0.037833f, -0.050836f, -0.060761f, -0.071159f, -0.078720f, -0.064786f, -0.025130f, 0.014597f, 0.039782f, 0.037958f, 0.013757f, -0.004688f, -0.013051f, -0.021550f, -0.047342f, -0.057534f, -0.036385f, 0.003576f, 0.047071f, 0.083268f, 0.092763f, 0.066562f, 0.027882f, 0.001724f, -0.024198f, -0.041390f, -0.041481f, -0.024543f, -0.007639f, 0.001715f, 0.006110f, 0.009694f, 0.014226f, 0.001129f, -0.027551f, -0.057132f, -0.074850f, -0.080044f, -0.085522f, -0.079680f, -0.057624f, -0.011221f, 0.041078f, 0.075142f, 0.089315f, 0.085561f, 0.071753f, 0.032339f, -0.014757f, -0.049026f, -0.069238f, -0.085105f, -0.095421f, -0.085216f, -0.064555f, -0.041358f, -0.021619f, -0.013607f, -0.012110f, -0.001725f, 0.013784f, 0.012397f, -0.016820f, -0.039052f, -0.022279f, 0.030246f, 0.084076f, 0.111441f, 0.113336f, 0.085181f, 0.040950f, 0.000648f, -0.021932f, -0.036328f, -0.049604f, -0.060093f, -0.058129f, -0.038431f, -0.020942f, -0.012388f, -0.013773f, -0.010000f, -0.013751f, -0.019352f, -0.015827f, -0.016126f, -0.029564f, -0.041157f, -0.026392f, 0.022324f, 0.077738f, 0.124916f, 0.152952f, 0.156978f, 0.128895f, 0.088484f, 0.061306f, 0.030358f },
  { 0.000000f, -0.040501f, -0.011899f, 0.001657f, -0.016333f, -0.029657f, -0.022161f, 0.006571f, 0.055080f, 0.085102f, 0.075204f, 0.046883f, 0.025548f, 0.012253f, -0.004723f, -0.039004f, -0.068081f, -0.079565f, -0.063422f, -0.030533f, 0.016573f, 0.057739f, 0.073471f, 0.076779f, 0.072650f, 0.056446f, 0.032117f, -0.013474f, -0.048987f, -0.055296f, -0.039331f, -0.021726f, -0.003877f, -0.000634f, -0.006016f, -0.004145f, 0.009367f, 0.014019f, -0.001199f, -0.020888f, -0.036915f, -0.048153f, -0.047762f, -0.022520f, 0.023617f, 0.063014f, 0.088116f, 0.101416f, 0.098928f, 0.082928f, 0.050117f, 0.010107f, -0.022458f, -0.056647f, -0.076362f, -0.082640f, -0.076438f, -0.056983f, -0.032117f, -0.008994f, 0.011045f, 0.013916f, -0.013699f, -0.053189f, -0.073168f, -0.063464f, -0.034037f, -0.001989f, 0.033824f, 0.071010f, 0.096951f, 0.089486f, 0.055054f, 0.030858f, 0.023252f, 0.004111f, -0.040257f, -0.069235f, -0.073161f, -0.069664f, -0.058012f, -0.038438f, -0.013228f, 0.020327f, 0.035549f, 0.008027f, -0.032491f, -0.067779f, -0.088929f, -0.097572f, -0.092861f, -0.081604f, -0.057581f, -0.009654f, 0.053492f, 0.099671f, 0.090684f, 0.026907f, -0.029654f, -0.045891f, -0.031217f, -0.022756f, -0.023499f, -0.025025f, -0.015748f, 0.003117f, 0.019835f, 0.026934f, -0.003828f, -0.041000f, -0.064009f, -0.074465f, -0.068305f, -0.053143f, -0.039069f, -0.029904f, 0.002265f, 0.045312f, 0.071489f, 0.077956f, 0.064861f, 0.029875f, -0.021354f, -0.063588f, -0.078980f, -0.071443f, -0.047357f, -0.033466f, -0.028766f, -0.028701f, -0.026838f, -0.019534f, -0.020652f, -0.028355f, -0.041662f, -0.059603f, -0.069035f, -0.067908f, -0.051704f, -0.027808f, 0.008542f, 0.064290f, 0.111663f, 0.114420f, 0.073208f, 0.037478f, 0.021610f, 0.009099f, -0.005216f, -0.017667f, -0.022084f, -0.018328f, -0.018547f, -0.025733f, -0.036541f, -0.037403f, -0.030389f, -0.021097f, -0.009386f, 0.006620f, 0.004208f, -0.020590f, -0.052402f, -0.049006f, 0.007042f, 0.077560f, 0.112616f, 0.109283f, 0.082955f, 0.050099f, 0.021267f, 0.003020f, -0.031709f, -0.046437f, -0.042906f, -0.035357f, -0.034002f, -0.025562f, -0.006501f, 0.003891f, -0.008419f, -0.038445f, -0.074251f, -0.101845f, -0.101567f, -0.074419f, -0.038454f, 0.012341f, 0.078135f, 0.141712f, 0.179062f, 0.165690f, 0.118074f, 0.068579f, 0.019366f, 0.011683f, 0.025621f, 0.030257f, -0.003317f, -0.035491f },
  { 0.000000f, 0.094954f, 0.080492f, 0.099243f, 0.135888f, 0.137509f, 0.109178f, 0.070157f, 0.028992f, -0.003587f, -0.016709f, -0.005446f, 0.004116f, 0.007055f, 0.013126f, 0.020991f, 0.018321f, 0.009158f, 0.002426f, -0.010084f, -0.041186f, -0.079718f, -0.093909f, -0.088319f, -0.088668f, -0.082240f, -0.071761f, -0.063712f, -0.059493f, -0.060089f, -0.045246f, -0.026230f, -0.027777f, -0.044977f, -0.065752f, -0.073516f, -0.071023f, -0.072611f, -0.078655f, -0.078527f, -0.069305f, -0.047404f, -0.002824f, 0.055803f, 0.104194f, 0.146018f, 0.165113f, 0.146212f, 0.103667f, 0.049150f, -0.001341f, -0.041202f, -0.065550f, -0.067086f, -0.059869f, -0.046064f, -0.035972f, -0.044570f, -0.058685f, -0.059521f, -0.045876f, -0.034865f, -0.030938f, -0.029646f, -0.024130f, -0.024026f, -0.030633f, -0.033700f, -0.036700f, -0.051333f, -0.067099f, -0.076724f, -0.072762f, -0.057023f, -0.036520f, -0.013887f, 0.000656f, -0.005890f, -0.024092f, -0.034965f, -0.042908f, -0.052616f, -0.057710f, -0.065056f, -0.073515f, -0.067994f, -0.056224f, -0.046561f, -0.028659f, 0.017432f, 0.079550f, 0.141191f, 0.178393f, 0.173828f, 0.162079f, 0.130752f, 0.099114f, 0.081485f, 0.063198f, 0.045526f, 0.016383f, -0.021614f, -0.052938f, -0.064140f, -0.064469f, -0.053816f, -0.047108f, -0.053126f, -0.065979f, -0.071600f, -0.062037f, -0.041131f, -0.018359f, -0.009396f, -0.019489f, -0.039413f, -0.067827f, -0.090154f, -0.089841f, -0.080719f, -0.071374f, -0.063298f, -0.045262f, -0.018106f, -0.001912f, -0.004329f, -0.015724f, -0.021198f, -0.018467f, -0.008316f, 0.001820f, -0.006794f, -0.023851f, -0.028440f, -0.013220f, 0.021515f, 0.047737f, 0.055998f, 0.068678f, 0.077342f, 0.068855f, 0.050385f, 0.037933f, 0.033060f, 0.030987f, 0.022469f, 0.003747f, -0.032957f, -0.058860f, -0.053176f, -0.025885f, -0.012078f, -0.020242f, -0.039423f, -0.051686f, -0.052716f, -0.042755f, -0.018131f, -0.006154f, -0.004525f, 0.007942f, 0.032224f, 0.033375f, 0.012487f, 0.008770f, 0.022564f, 0.015349f, -0.016521f, -0.036453f, -0.033972f, -0.021508f, -0.009920f, -0.003216f, -0.002763f, 0.005027f, 0.018973f, 0.025381f, 0.013257f, -0.011459f, -0.030743f, -0.031138f, -0.016056f, -0.008211f, 0.002334f, 0.022068f, 0.059318f, 0.110664f, 0.169098f, 0.208490f, 0.217769f, 0.181379f, 0.120357f, 0.065992f, 0.030747f, 0.013197f, 0.010629f, 0.008462f, 0.006967f, -0.009595f, -0.023654f },
  { 0.000000f, -0.031634f, -0.015645f, -0.011842f, -0.010810f, -0.006754f, -0.015699f, -0.035685f, -0.042261f, -0.023515f, 0.000672f, 0.011586f, 0.004995f, -0.011522f, -0.033175f, -0.054350f, -0.067064f, -0.065421f, -0.054087f, -0.038763f, -0.015000f, 0.028209f, 0.068801f, 0.085623f, 0.075696f, 0.032393f, -0.008899f, -0.034655f, -0.048139f, -0.050424f, -0.043784f, -0.021709f, 0.001270f, 0.019993f, 0.027417f, 0.020063f, 0.003103f, -0.015206f, -0.031507f, -0.046963f, -0.057031f, -0.055061f, -0.035766f, 0.005310f, 0.050194f, 0.082085f, 0.097717f, 0.097107f, 0.069601f, 0.015928f, -0.034032f, -0.053191f, -0.051914f, -0.046261f, -0.049005f, -0.052109f, -0.045386f, -0.029865f, -0.016877f, -0.014558f, -0.017118f, -0.023933f, -0.031876f, -0.033810f, -0.028648f, -0.012014f, 0.014004f, 0.045416f, 0.087466f, 0.121783f, 0.129171f, 0.110816f, 0.068093f, 0.014889f, -0.034387f, -0.065617f, -0.077584f, -0.074814f, -0.061609f, -0.042202f, -0.027629f, -0.019552f, -0.017029f, -0.014835f, -0.012836f, -0.023136f, -0.033465f, -0.031347f, -0.016011f, 0.005013f, 0.032736f, 0.073597f, 0.115260f, 0.134045f, 0.115901f, 0.071233f, 0.027304f, -0.012624f, -0.037818f, -0.051899f, -0.057054f, -0.048192f, -0.031199f, -0.021357f, -0.019211f, -0.022677f, -0.028630f, -0.033400f, -0.038501f, -0.043884f, -0.046636f, -0.034051f, 0.008322f, 0.070674f, 0.122870f, 0.158796f, 0.167662f, 0.133672f, 0.065646f, -0.000817f, -0.050983f, -0.077341f, -0.084786f, -0.076568f, -0.052518f, -0.017603f, 0.023293f, 0.049884f, 0.035569f, 0.005987f, -0.026984f, -0.052374f, -0.067043f, -0.072009f, -0.060673f, -0.030973f, 0.011540f, 0.042547f, 0.047835f, 0.043179f, 0.037509f, 0.019580f, -0.011704f, -0.032811f, -0.037671f, -0.036577f, -0.037466f, -0.028431f, -0.015556f, -0.004790f, 0.002728f, -0.005272f, -0.018208f, -0.032431f, -0.046804f, -0.056079f, -0.055821f, -0.035495f, 0.010656f, 0.060592f, 0.105382f, 0.147135f, 0.178138f, 0.168190f, 0.109410f, 0.034953f, -0.024096f, -0.058930f, -0.074369f, -0.077991f, -0.070763f, -0.053107f, -0.029762f, -0.014389f, -0.015512f, -0.026282f, -0.034879f, -0.038990f, -0.036024f, -0.025134f, 0.004366f, 0.046109f, 0.089806f, 0.141504f, 0.177906f, 0.189781f, 0.175473f, 0.134379f, 0.086866f, 0.021577f, -0.037706f, -0.058450f, -0.049630f, -0.036597f, -0.027964f, -0.023668f, -0.023978f, -0.031282f, -0.041512f, -0.050373f },
  { 0.000000f, 0.050968f, 0.043696f, 0.036475f, -0.002058f, -0.060700f, -0.091793f, -0.074114f, -0.020842f, 0.036054f, 0.063493f, 0.062336f, 0.050103f, 0.026268f, -0.011312f, -0.052500f, -0.081188f, -0.087150f, -0.071130f, -0.026330f, 0.043280f, 0.115335f, 0.159801f, 0.151903f, 0.099759f, 0.032570f, -0.017059f, -0.047890f, -0.068077f, -0.072616f, -0.054874f, -0.022875f, 0.000302f, 0.015047f, 0.029859f, 0.045671f, 0.023291f, -0.016992f, -0.049516f, -0.052482f, -0.038602f, -0.013670f, 0.029313f, 0.070409f, 0.106098f, 0.124665f, 0.108913f, 0.071453f, 0.017534f, -0.047787f, -0.086045f, -0.093663f, -0.092252f, -0.076888f, -0.043308f, 0.004805f, 0.040068f, 0.054894f, 0.035058f, -0.010061f, -0.041319f, -0.050757f, -0.046165f, -0.035828f, -0.005013f, 0.035569f, 0.097121f, 0.153578f, 0.165205f, 0.135032f, 0.084955f, 0.039878f, 0.005237f, -0.018408f, -0.023988f, -0.013349f, -0.001598f, 0.009854f, 0.014126f, 0.000059f, -0.012551f, -0.024186f, -0.045073f, -0.066938f, -0.082188f, -0.078718f, -0.057829f, -0.025452f, 0.015333f, 0.055272f, 0.094904f, 0.092720f, 0.061966f, 0.027994f, -0.018451f, -0.058800f, -0.077546f, -0.072084f, -0.055748f, -0.034147f, -0.012863f, 0.005330f, 0.018543f, 0.009313f, -0.006130f, -0.020463f, -0.031271f, -0.039267f, -0.038909f, -0.025575f, 0.002080f, 0.041400f, 0.081366f, 0.099999f, 0.091893f, 0.061449f, 0.022389f, -0.005350f, -0.032338f, -0.056957f, -0.069805f, -0.071619f, -0.054529f, -0.024358f, 0.004573f, 0.022860f, -0.004703f, -0.040634f, -0.046437f, -0.034794f, -0.016144f, -0.005659f, 0.029837f, 0.073725f, 0.086964f, 0.076104f, 0.055944f, 0.034230f, 0.015417f, 0.000392f, -0.010628f, -0.017227f, -0.020133f, -0.020122f, -0.010406f, 0.001685f, 0.010876f, 0.017333f, 0.023970f, 0.015390f, 0.002437f, -0.008648f, -0.016954f, -0.028172f, -0.030393f, -0.013027f, 0.019569f, 0.046690f, 0.042376f, 0.017930f, -0.000512f, -0.015303f, -0.040517f, -0.072407f, -0.081732f, -0.056535f, -0.021525f, -0.015870f, -0.031356f, -0.052558f, -0.058502f, -0.053967f, -0.051484f, -0.057116f, -0.070030f, -0.079154f, -0.073677f, -0.039880f, 0.019471f, 0.082918f, 0.126178f, 0.134947f, 0.126752f, 0.102365f, 0.055727f, -0.005406f, -0.067197f, -0.104450f, -0.106512f, -0.076454f, -0.040670f, -0.024159f, -0.015546f, -0.002997f, 0.008844f, -0.010904f, -0.051707f, -0.076629f, -0.067814f, -0.052251f },
  { 0.000000f, -0.106712f, -0.072334f, -0.052795f, -0.038665f, -0.027113f, -0.019090f, -0.020106f, -0.031338f, -0.039577f, -0.033518f, -0.025785f, -0.028380f, -0.036624f, -0.050193f, -0.060529f, -0.051310f, -0.032247f, -0.013908f, 0.004221f, 0.030568f, 0.059952f, 0.069333f, 0.060100f, 0.052750f, 0.053945f, 0.044417f, 0.016740f, -0.005068f, -0.011052f, -0.020069f, -0.016427f, 0.000373f, 0.005588f, -0.003877f, -0.026884f, -0.047033f, -0.050656f, -0.050679f, -0.046103f, -0.040510f, -0.033199f, -0.012328f, 0.027069f, 0.053964f, 0.066523f, 0.057261f, 0.023031f, -0.017899f, -0.047051f, -0.059490f, -0.052770f, -0.041239f, -0.032905f, -0.021302f, -0.005925f, 0.001812f, -0.006300f, -0.014413f, -0.011338f, -0.018636f, -0.019572f, -0.012300f, 0.015247f, 0.067845f, 0.120083f, 0.145548f, 0.130775f, 0.090214f, 0.050795f, 0.025363f, 0.006471f, -0.021721f, -0.049732f, -0.063882f, -0.057802f, -0.040411f, -0.029600f, -0.035279f, -0.042892f, -0.050015f, -0.047885f, -0.025105f, 0.013683f, 0.037094f, 0.055636f, 0.077830f, 0.102184f, 0.110315f, 0.095120f, 0.072426f, 0.046342f, 0.019028f, 0.000065f, -0.007938f, -0.020324f, -0.022985f, -0.012367f, -0.001870f, 0.004499f, -0.000401f, -0.014959f, -0.034484f, -0.048143f, -0.053460f, -0.050026f, -0.035089f, -0.000179f, 0.041553f, 0.080244f, 0.111555f, 0.129901f, 0.109518f, 0.059243f, 0.012820f, -0.018564f, -0.040040f, -0.056503f, -0.060125f, -0.053132f, -0.032851f, -0.014939f, -0.005087f, -0.002581f, -0.011798f, -0.025573f, -0.030712f, -0.034184f, -0.028071f, -0.011029f, 0.033514f, 0.081170f, 0.092365f, 0.085612f, 0.076005f, 0.052119f, 0.011199f, -0.024468f, -0.036609f, -0.030581f, -0.027705f, -0.026959f, -0.022783f, -0.014109f, -0.008017f, -0.017894f, -0.034529f, -0.055723f, -0.052017f, -0.016591f, 0.006886f, 0.025184f, 0.042152f, 0.071172f, 0.095783f, 0.107572f, 0.126231f, 0.122706f, 0.080902f, 0.032864f, -0.014261f, -0.051848f, -0.073628f, -0.071048f, -0.040731f, -0.016633f, -0.017638f, -0.023345f, -0.029394f, -0.039481f, -0.047666f, -0.049486f, -0.047106f, -0.026268f, 0.025245f, 0.088396f, 0.138773f, 0.175034f, 0.180795f, 0.149897f, 0.092680f, 0.023225f, -0.033009f, -0.068337f, -0.072112f, -0.060542f, -0.041216f, -0.035477f, -0.044907f, -0.051367f, -0.051000f, -0.046203f, -0.042856f, -0.041464f, -0.032618f, -0.001396f, 0.041511f, 0.069692f, 0.088169f, 0.089645f },
  { 0.000000f, 0.011579f, -0.011255f, -0.027999f, -0.030402f, -0.016829f, 0.005248f, 0.033323f, 0.050473f, 0.042436f, 0.017394f, -0.008027f, -0.027801f, -0.047800f, -0.067030f, -0.072218f, -0.057644f, -0.033059f, -0.003539f, 0.029043f, 0.064298f, 0.088826f, 0.087523f, 0.055644f, -0.002579f, -0.054015f, -0.077152f, -0.078082f, -0.069529f, -0.055926f, -0.037674f, -0.018927f, -0.002341f, 0.003674f, -0.004037f, -0.022630f, -0.045058f, -0.057851f, -0.049019f, -0.021714f, 0.010308f, 0.052713f, 0.098110f, 0.114042f, 0.098690f, 0.060108f, 0.017134f, -0.016826f, -0.043256f, -0.059659f, -0.065145f, -0.063392f, -0.057601f, -0.050356f, -0.048326f, -0.052969f, -0.059777f, -0.059975f, -0.052906f, -0.049285f, -0.037613f, -0.011458f, 0.027837f, 0.075569f, 0.098448f, 0.093592f, 0.072378f, 0.035551f, 0.000342f, -0.029368f, -0.052827f, -0.060520f, -0.055881f, -0.042081f, -0.036496f, -0.040594f, -0.047059f, -0.051951f, -0.049933f, -0.047506f, -0.043790f, -0.034937f, -0.017201f, 0.009169f, 0.045531f, 0.072049f, 0.074589f, 0.061822f, 0.037893f, 0.018685f, -0.001364f, -0.018186f, -0.037921f, -0.050096f, -0.051601f, -0.041172f, -0.022352f, -0.007443f, -0.002269f, -0.014229f, -0.032669f, -0.044078f, -0.041638f, -0.027912f, -0.014325f, 0.004078f, 0.035834f, 0.073932f, 0.098537f, 0.096648f, 0.069613f, 0.030759f, -0.002740f, -0.028773f, -0.050579f, -0.063286f, -0.060918f, -0.049034f, -0.040389f, -0.036278f, -0.039615f, -0.050096f, -0.063269f, -0.069511f, -0.062420f, -0.041984f, -0.003875f, 0.050842f, 0.096643f, 0.116312f, 0.105440f, 0.082079f, 0.059260f, 0.030863f, -0.005188f, -0.037911f, -0.061941f, -0.062285f, -0.049906f, -0.033148f, -0.018080f, -0.011412f, -0.008906f, -0.011724f, -0.019724f, -0.024688f, -0.017103f, 0.007301f, 0.037685f, 0.052073f, 0.059308f, 0.068514f, 0.075337f, 0.064926f, 0.030323f, -0.020900f, -0.065188f, -0.084322f, -0.077239f, -0.059786f, -0.043077f, -0.029928f, -0.018877f, -0.009065f, -0.009128f, -0.019278f, -0.025973f, -0.019160f, 0.001871f, 0.042634f, 0.086585f, 0.122319f, 0.151765f, 0.174690f, 0.174842f, 0.139610f, 0.079546f, 0.010263f, -0.044043f, -0.070005f, -0.064820f, -0.045441f, -0.030300f, -0.026616f, -0.037488f, -0.047632f, -0.056856f, -0.061110f, -0.057147f, -0.045898f, -0.023099f, 0.000180f, 0.018680f, 0.042642f, 0.071538f, 0.094830f, 0.103468f, 0.083623f, 0.045865f, -0.001726f },
  { 0.000000f, 0.045845f, 0.001250f, -0.019326f, 0.001067f, 0.037682f, 0.074291f, 0.098262f, 0.087851f, 0.055003f, 0.024681f, 0.013741f, 0.010997f, 0.013054f, 0.016589f, 0.018881f, 0.018792f, 0.020782f, 0.032762f, 0.050654f, 0.069690f, 0.089681f, 0.095048f, 0.091085f, 0.078448f, 0.067590f, 0.051515f, 0.012648f, -0.005351f, -0.020654f, -0.034747f, -0.041892f, -0.045262f, -0.044185f, -0.029618f, -0.024363f, -0.029360f, -0.024034f, 0.004926f, 0.044890f, 0.068510f, 0.090431f, 0.084074f, 0.032586f, -0.017738f, -0.032103f, -0.028254f, -0.038086f, -0.050104f, -0.054680f, -0.042722f, -0.031140f, -0.025138f, -0.027333f, -0.041962f, -0.050282f, -0.038591f, -0.019123f, 0.016502f, 0.065109f, 0.066085f, 0.031827f, -0.001898f, -0.027490f, -0.038376f, -0.039474f, -0.041660f, -0.053760f, -0.067548f, -0.080275f, -0.088171f, -0.092979f, -0.092470f, -0.087041f, -0.061797f, -0.022876f, 0.008803f, 0.027532f, 0.046252f, 0.060757f, 0.068896f, 0.086022f, 0.116558f, 0.120126f, 0.092004f, 0.059475f, 0.010710f, -0.029830f, -0.062219f, -0.087118f, -0.102567f, -0.099080f, -0.087572f, -0.074963f, -0.065884f, -0.061029f, -0.052116f, -0.037633f, -0.023204f, -0.000332f, 0.030494f, 0.068445f, 0.073169f, 0.040794f, -0.010514f, -0.048712f, -0.060379f, -0.047471f, -0.022082f, -0.013926f, -0.023899f, -0.031632f, -0.054281f, -0.057656f, -0.038862f, -0.016872f, -0.013796f, -0.012463f, 0.007861f, 0.040583f, 0.057458f, 0.045962f, 0.014181f, -0.004660f, -0.015723f, -0.049203f, -0.092393f, -0.113047f, -0.112498f, -0.111387f, -0.105772f, -0.088266f, -0.068936f, -0.055676f, -0.037179f, -0.007651f, 0.004688f, 0.014484f, 0.043345f, 0.056144f, 0.061349f, 0.058330f, 0.050779f, 0.058394f, 0.064179f, 0.043303f, 0.007844f, -0.032851f, -0.070847f, -0.096672f, -0.096618f, -0.080547f, -0.056474f, -0.043359f, -0.041720f, -0.049331f, -0.068240f, -0.075838f, -0.034182f, 0.044693f, 0.116478f, 0.129004f, 0.092235f, 0.057662f, 0.035809f, 0.012216f, -0.016791f, -0.026573f, -0.034063f, -0.046585f, -0.058006f, -0.064341f, -0.062344f, -0.054501f, -0.049918f, -0.055430f, -0.050525f, -0.003799f, 0.029212f, 0.034579f, 0.046196f, 0.068403f, 0.112081f, 0.146242f, 0.136060f, 0.076758f, -0.012268f, -0.088975f, -0.131349f, -0.139611f, -0.120351f, -0.097270f, -0.080667f, -0.059818f, -0.034575f, -0.022918f, -0.033513f, -0.040937f, -0.006348f, 0.058721f },
  { 0.000000f, 0.055093f, 0.088783f, 0.086112f, 0.048046f, 0.007766f, 0.000489f, 0.006844f, 0.012491f, 0.008389f, -0.000186f, -0.009657f, -0.011987f, -0.007939f, -0.006585f, -0.007460f, -0.012423f, -0.018810f, -0.025011f, -0.023790f, -0.002176f, 0.007102f, -0.015096f, -0.049458f, -0.068487f, -0.066553f, -0.052221f, -0.037981f, -0.026303f, -0.016326f, -0.010958f, -0.008044f, -0.011299f, -0.026420f, -0.044113f, -0.047969f, -0.022173f, 0.035766f, 0.095725f, 0.121157f, 0.114682f, 0.084418f, 0.045921f, 0.003879f, -0.032222f, -0.058314f, -0.064097f, -0.053336f, -0.027516f, 0.009261f, 0.029961f, 0.021727f, 0.000906f, -0.013834f, -0.016440f, -0.010034f, -0.006702f, -0.003362f, 0.004382f, 0.016470f, 0.047211f, 0.058824f, 0.033645f, 0.003728f, 0.001680f, 0.010359f, 0.019163f, 0.027401f, 0.028983f, 0.021913f, 0.008414f, -0.010102f, -0.032286f, -0.046904f, -0.052335f, -0.044972f, -0.023836f, 0.003834f, 0.039318f, 0.059224f, 0.064525f, 0.059074f, 0.044541f, 0.012165f, -0.030303f, -0.048845f, -0.041433f, -0.026494f, -0.007803f, 0.016338f, 0.023466f, 0.010041f, -0.007689f, -0.023293f, -0.024451f, -0.006960f, 0.010024f, 0.012094f, 0.009160f, 0.019077f, 0.024847f, 0.005399f, -0.016840f, -0.031710f, -0.025566f, -0.000353f, 0.016610f, 0.013695f, 0.000565f, -0.009825f, -0.024257f, -0.048317f, -0.064328f, -0.066983f, -0.049992f, -0.016252f, 0.034056f, 0.097262f, 0.135930f, 0.144769f, 0.111993f, 0.066077f, 0.020065f, -0.011429f, -0.028186f, -0.040170f, -0.045917f, -0.034775f, -0.007208f, 0.014203f, 0.013245f, 0.014669f, 0.016862f, 0.005234f, -0.014498f, -0.040054f, -0.039400f, -0.022410f, -0.009390f, -0.000888f, -0.008885f, -0.025724f, -0.030849f, -0.036471f, -0.032090f, -0.014250f, 0.009797f, 0.018895f, 0.002000f, -0.026458f, -0.049715f, -0.066168f, -0.081228f, -0.081766f, -0.053174f, 0.003989f, 0.092247f, 0.190398f, 0.232345f, 0.217239f, 0.177742f, 0.150659f, 0.111810f, 0.038915f, -0.029403f, -0.055770f, -0.065555f, -0.063602f, -0.057354f, -0.057238f, -0.057774f, -0.055012f, -0.046659f, -0.053753f, -0.070404f, -0.072177f, -0.043523f, 0.004704f, 0.059930f, 0.086650f, 0.059629f, 0.018832f, -0.018607f, -0.041632f, -0.042782f, -0.033840f, -0.025337f, -0.024468f, -0.028545f, -0.039282f, -0.061452f, -0.078510f, -0.070381f, -0.052802f, -0.035543f, -0.006129f, 0.058492f, 0.146103f, 0.209495f, 0.230838f },
  { 0.000000f, 0.047651f, 0.032582f, -0.004909f, -0.054074f, -0.061081f, -0.004370f, 0.075962f, 0.096289f, 0.055668f, 0.007403f, -0.014072f, -0.011648f, 0.001445f, 0.012449f, 0.002733f, -0.026568f, -0.052861f, -0.065613f, -0.054971f, -0.043343f, -0.040522f, -0.035522f, -0.031246f, -0.036360f, -0.050322f, -0.057816f, -0.047508f, -0.036461f, -0.036641f, -0.036509f, -0.036883f, -0.034811f, -0.035116f, -0.034844f, -0.016410f, 0.016187f, 0.047626f, 0.079942f, 0.102308f, 0.107902f, 0.081364f, 0.048796f, 0.024746f, 0.004906f, -0.015474f, -0.033814f, -0.042475f, -0.052978f, -0.070802f, -0.074679f, -0.061648f, -0.046570f, -0.032395f, -0.015423f, 0.009946f, 0.053953f, 0.100487f, 0.101601f, 0.063207f, 0.023612f, 0.002329f, 0.006249f, -0.000557f, -0.035775f, -0.065649f, -0.078285f, -0.076476f, -0.069056f, -0.062451f, -0.053609f, -0.036421f, -0.012842f, 0.010601f, 0.023981f, 0.027791f, 0.023762f, 0.025437f, 0.029463f, 0.045006f, 0.063788f, 0.060669f, 0.028054f, -0.007326f, -0.026638f, -0.043837f, -0.055557f, -0.053266f, -0.045861f, -0.037133f, -0.019118f, -0.005146f, -0.000792f, -0.009775f, -0.019981f, -0.007008f, 0.042571f, 0.110363f, 0.157263f, 0.155791f, 0.113955f, 0.065477f, 0.029501f, 0.014073f, 0.008488f, 0.012601f, 0.004297f, -0.017765f, -0.037647f, -0.053597f, -0.061151f, -0.060738f, -0.051566f, -0.035714f, -0.024481f, -0.020027f, -0.001443f, 0.007669f, 0.009622f, -0.008774f, -0.031897f, -0.038647f, -0.028717f, -0.029581f, -0.038970f, -0.037462f, -0.026141f, -0.015217f, -0.011045f, -0.010020f, -0.005566f, -0.003189f, -0.002895f, 0.014303f, 0.053978f, 0.099835f, 0.121822f, 0.109392f, 0.067254f, 0.021977f, 0.006207f, 0.012183f, 0.006482f, -0.009226f, -0.031991f, -0.041456f, -0.041963f, -0.047653f, -0.060187f, -0.056101f, -0.029420f, -0.003136f, 0.010596f, 0.021759f, 0.038261f, 0.075450f, 0.119031f, 0.128150f, 0.104799f, 0.080713f, 0.066597f, 0.059283f, 0.053718f, 0.047652f, 0.032088f, -0.006523f, -0.045673f, -0.069412f, -0.072981f, -0.058029f, -0.028946f, -0.009834f, -0.007436f, 0.013041f, 0.048065f, 0.092649f, 0.123207f, 0.101042f, 0.047452f, -0.012738f, -0.048242f, -0.069113f, -0.095442f, -0.108389f, -0.090937f, -0.074061f, -0.058702f, -0.051384f, -0.049657f, -0.047989f, -0.041867f, -0.023584f, -0.003066f, 0.011399f, 0.028352f, 0.064384f, 0.106872f, 0.110669f, 0.061097f, 0.000351f },
  { 0.000000f, -0.012677f, -0.040874f, -0.049682f, -0.054795f, -0.043958f, -0.026341f, -0.017003f, -0.004382f, 0.013123f, 0.013866f, 0.003245f, -0.006674f, -0.017914f, -0.028195f, -0.027602f, -0.015534f, -0.003684f, -0.004374f, -0.010883f, -0.017089f, -0.019614f, -0.017801f, -0.024817f, -0.042810f, -0.063776f, -0.082616f, -0.085761f, -0.077323f, -0.063767f, -0.060224f, -0.061032f, -0.041115f, -0.009429f, 0.017036f, 0.044964f, 0.071419f, 0.096086f, 0.098012f, 0.076910f, 0.056713f, 0.038948f, 0.006685f, -0.032475f, -0.068696f, -0.085449f, -0.080116f, -0.064801f, -0.050161f, -0.036341f, -0.006446f, 0.025352f, 0.046313f, 0.043053f, 0.029960f, 0.018859f, 0.004358f, -0.006315f, -0.005988f, -0.001100f, 0.012875f, 0.031998f, 0.058032f, 0.072566f, 0.041686f, -0.008216f, -0.043988f, -0.059274f, -0.063490f, -0.062713f, -0.044922f, -0.009911f, 0.022006f, 0.073312f, 0.142591f, 0.178595f, 0.161774f, 0.131808f, 0.071392f, 0.013390f, -0.024609f, -0.042986f, -0.048492f, -0.040529f, -0.033979f, -0.028936f, -0.017958f, -0.007749f, -0.001519f, 0.001301f, -0.004011f, -0.008139f, -0.003590f, -0.000434f, -0.002057f, 0.003765f, 0.020149f, 0.031779f, 0.030514f, 0.020762f, -0.000791f, -0.028511f, -0.045486f, -0.049188f, -0.051458f, -0.056331f, -0.052401f, -0.030249f, -0.002101f, 0.025876f, 0.052788f, 0.079618f, 0.105108f, 0.116857f, 0.107599f, 0.082165f, 0.055661f, 0.035461f, 0.003570f, -0.026361f, -0.048240f, -0.060361f, -0.055910f, -0.039481f, -0.006589f, 0.028849f, 0.049254f, 0.038395f, 0.010314f, -0.013230f, -0.014358f, 0.002076f, 0.011075f, 0.000080f, -0.015571f, -0.018719f, -0.003571f, 0.014037f, 0.019959f, 0.012480f, 0.010999f, 0.006343f, -0.014283f, -0.022339f, -0.014149f, -0.010403f, -0.000993f, 0.041247f, 0.121266f, 0.183235f, 0.192910f, 0.151363f, 0.068732f, 0.008676f, -0.035780f, -0.064193f, -0.068131f, -0.061507f, -0.053382f, -0.047367f, -0.053331f, -0.052565f, -0.044929f, -0.027856f, -0.015728f, -0.014537f, -0.016599f, -0.024773f, -0.031243f, -0.027929f, -0.018575f, -0.002741f, 0.016666f, 0.027783f, 0.018134f, 0.001773f, -0.015108f, -0.029470f, -0.045749f, -0.052370f, -0.052026f, -0.063725f, -0.064721f, -0.050830f, -0.017822f, 0.012972f, 0.037395f, 0.066437f, 0.108751f, 0.144313f, 0.136035f, 0.103877f, 0.053282f, 0.015427f, -0.015065f, -0.050629f, -0.069329f, -0.063733f, -0.048253f, -0.030545f },
  { 0.000000f, 0.020396f, 0.041339f, 0.028413f, -0.014858f, -0.048536f, -0.049668f, -0.033788f, -0.029451f, -0.042043f, -0.061514f, -0.075023f, -0.076773f, -0.067624f, -0.045323f, -0.005113f, 0.050091f, 0.096980f, 0.120310f, 0.117519f, 0.084892f, 0.029901f, -0.025667f, -0.057186f, -0.056643f, -0.043130f, -0.034791f, -0.030318f, -0.031621f, -0.036929f, -0.038782f, -0.036522f, -0.023422f, 0.000656f, 0.040297f, 0.081729f, 0.106273f, 0.089862f, 0.047298f, 0.005908f, -0.023430f, -0.039641f, -0.048082f, -0.048237f, -0.042774f, -0.039678f, -0.037904f, -0.040515f, -0.041791f, -0.034845f, -0.016918f, 0.012179f, 0.047164f, 0.079743f, 0.096286f, 0.096856f, 0.078632f, 0.041682f, 0.008724f, -0.016488f, -0.037231f, -0.049852f, -0.061244f, -0.070734f, -0.068273f, -0.051965f, -0.037569f, -0.031257f, -0.019899f, 0.000576f, 0.026342f, 0.059160f, 0.094964f, 0.111255f, 0.107543f, 0.074718f, 0.037701f, 0.009695f, -0.009482f, -0.023383f, -0.035581f, -0.045030f, -0.050463f, -0.051721f, -0.051626f, -0.046324f, -0.031304f, -0.012400f, 0.007861f, 0.027696f, 0.047349f, 0.066316f, 0.081380f, 0.098499f, 0.089759f, 0.052537f, 0.004442f, -0.024470f, -0.034465f, -0.033965f, -0.035421f, -0.041219f, -0.045797f, -0.041759f, -0.026111f, -0.004427f, 0.026700f, 0.048953f, 0.074667f, 0.084782f, 0.076360f, 0.057801f, 0.033873f, 0.014331f, 0.003470f, -0.005267f, -0.019038f, -0.026174f, -0.027411f, -0.038486f, -0.045350f, -0.042445f, -0.032232f, -0.013710f, 0.011112f, 0.044022f, 0.071981f, 0.076847f, 0.072190f, 0.068613f, 0.064329f, 0.050460f, 0.028268f, 0.007226f, -0.014463f, -0.039041f, -0.062092f, -0.070685f, -0.067389f, -0.054524f, -0.032654f, -0.001917f, 0.046857f, 0.081695f, 0.094839f, 0.109043f, 0.116884f, 0.108873f, 0.082857f, 0.051164f, 0.024955f, 0.001148f, -0.023140f, -0.043095f, -0.052317f, -0.053614f, -0.055372f, -0.050404f, -0.041303f, -0.026583f, -0.007059f, 0.013525f, 0.043346f, 0.070436f, 0.088582f, 0.096146f, 0.091175f, 0.073878f, 0.046878f, 0.025672f, 0.005044f, -0.004259f, -0.007575f, -0.015259f, -0.027615f, -0.037572f, -0.037004f, -0.022262f, 0.006855f, 0.022894f, 0.027395f, 0.029460f, 0.034308f, 0.038609f, 0.032525f, 0.019906f, 0.004619f, -0.011896f, -0.033215f, -0.043752f, -0.040589f, -0.028218f, -0.014420f, -0.008833f, -0.005671f, -0.011908f, -0.010690f, 0.005823f, 0.025292f, 0.042488f },
  { 0.000000f, 0.019822f, -0.004677f, -0.001745f, 0.025500f, 0.051339f, 0.042473f, 0.006569f, -0.026815f, -0.035107f, -0.028461f, -0.022177f, -0.017284f, -0.008878f, 0.005699f, 0.030695f, 0.060363f, 0.078866f, 0.075916f, 0.052513f, 0.036808f, 0.016991f, -0.003449f, -0.020470f, -0.029372f, -0.033588f, -0.044332f, -0.044684f, -0.029643f, 0.004513f, 0.024052f, 0.028118f, 0.022707f, 0.018523f, 0.029942f, 0.049624f, 0.048765f, 0.033903f, 0.012749f, -0.005143f, -0.015325f, -0.023661f, -0.036122f, -0.049620f, -0.057798f, -0.056528f, -0.046015f, -0.028758f, -0.002777f, 0.021124f, 0.045421f, 0.068884f, 0.093252f, 0.108968f, 0.100574f, 0.070539f, 0.041133f, 0.004944f, -0.026950f, -0.046854f, -0.055503f, -0.058057f, -0.058099f, -0.059770f, -0.058974f, -0.046073f, -0.026480f, -0.008798f, -0.000167f, 0.006300f, 0.019670f, 0.030999f, 0.035651f, 0.033959f, 0.029804f, 0.025273f, 0.006941f, -0.023375f, -0.046019f, -0.059010f, -0.068053f, -0.071765f, -0.062965f, -0.044964f, -0.019726f, 0.016634f, 0.047296f, 0.072994f, 0.096599f, 0.111455f, 0.091466f, 0.054757f, 0.024636f, -0.000702f, -0.021031f, -0.034978f, -0.043104f, -0.047794f, -0.048549f, -0.049213f, -0.050032f, -0.042287f, -0.031318f, -0.008637f, 0.021721f, 0.043478f, 0.052705f, 0.059209f, 0.044257f, 0.015107f, -0.004424f, -0.022826f, -0.046737f, -0.066510f, -0.072639f, -0.077604f, -0.078772f, -0.081719f, -0.069756f, -0.040856f, -0.009026f, 0.019483f, 0.039865f, 0.071763f, 0.110613f, 0.129550f, 0.106734f, 0.061878f, 0.022343f, -0.005161f, -0.023540f, -0.039842f, -0.055190f, -0.065215f, -0.074214f, -0.082357f, -0.080191f, -0.058206f, -0.028046f, 0.000489f, 0.020587f, 0.037450f, 0.069976f, 0.079417f, 0.059417f, 0.030252f, -0.000468f, -0.028472f, -0.052968f, -0.069760f, -0.073198f, -0.072936f, -0.073780f, -0.075286f, -0.062207f, -0.030928f, 0.005175f, 0.040221f, 0.067428f, 0.083832f, 0.084492f, 0.061737f, 0.018124f, -0.027996f, -0.057437f, -0.072044f, -0.079864f, -0.085926f, -0.093504f, -0.103028f, -0.113297f, -0.111388f, -0.084359f, -0.029571f, 0.029656f, 0.074962f, 0.103661f, 0.113935f, 0.087989f, 0.034403f, -0.014216f, -0.045453f, -0.061140f, -0.072087f, -0.083871f, -0.095563f, -0.104851f, -0.111131f, -0.116885f, -0.106862f, -0.067852f, -0.009010f, 0.045131f, 0.084776f, 0.102164f, 0.092156f, 0.054350f, 0.015756f, -0.016587f, -0.041880f },
  { 0.000000f, -0.087032f, -0.018719f, 0.007079f, 0.004247f, -0.018275f, -0.042572f, -0.048898f, -0.044324f, -0.045970f, -0.046054f, -0.040731f, -0.034440f, -0.026933f, -0.007760f, 0.023415f, 0.051911f, 0.066832f, 0.071517f, 0.058434f, 0.025108f, -0.006445f, -0.034633f, -0.051676f, -0.058578f, -0.055798f, -0.049015f, -0.049336f, -0.050190f, -0.052778f, -0.038841f, -0.002614f, 0.037016f, 0.059623f, 0.073309f, 0.084287f, 0.088462f, 0.064127f, 0.028871f, -0.011696f, -0.036404f, -0.048546f, -0.054285f, -0.055033f, -0.051011f, -0.045370f, -0.038161f, -0.025404f, -0.005234f, 0.013603f, 0.027630f, 0.029703f, 0.026192f, 0.026651f, 0.027741f, 0.019430f, -0.012023f, -0.036163f, -0.046953f, -0.050025f, -0.047068f, -0.043039f, -0.040853f, -0.037437f, -0.027938f, -0.018616f, -0.002182f, 0.021631f, 0.059253f, 0.088421f, 0.098592f, 0.088178f, 0.072152f, 0.043268f, 0.002771f, -0.033361f, -0.049487f, -0.052391f, -0.052668f, -0.047762f, -0.036456f, -0.021864f, -0.006437f, 0.021295f, 0.049411f, 0.052400f, 0.062869f, 0.073253f, 0.066622f, 0.029504f, -0.008932f, -0.028490f, -0.037251f, -0.049764f, -0.056750f, -0.056785f, -0.052255f, -0.047742f, -0.043396f, -0.033973f, -0.011908f, 0.022851f, 0.068067f, 0.100995f, 0.107610f, 0.096800f, 0.085036f, 0.053182f, 0.025809f, 0.004139f, -0.020845f, -0.038218f, -0.038959f, -0.030567f, -0.027817f, -0.022558f, -0.015043f, 0.007642f, 0.024511f, 0.035936f, 0.045738f, 0.065645f, 0.083566f, 0.071207f, 0.037312f, -0.017499f, -0.053398f, -0.065703f, -0.070616f, -0.066428f, -0.055275f, -0.048466f, -0.044283f, -0.034999f, -0.018387f, 0.002151f, 0.035566f, 0.065917f, 0.097305f, 0.121087f, 0.124514f, 0.120356f, 0.073443f, 0.002663f, -0.036273f, -0.051768f, -0.058232f, -0.068125f, -0.074981f, -0.069806f, -0.052474f, -0.029704f, -0.002219f, 0.033927f, 0.058331f, 0.074655f, 0.088251f, 0.075518f, 0.044332f, 0.018538f, 0.003306f, -0.010413f, -0.020237f, -0.035368f, -0.046904f, -0.047071f, -0.037979f, -0.026149f, -0.009349f, 0.015531f, 0.053507f, 0.086814f, 0.109541f, 0.101815f, 0.077957f, 0.046232f, 0.021875f, 0.009660f, -0.006189f, -0.031274f, -0.056101f, -0.069118f, -0.075776f, -0.074489f, -0.062713f, -0.046780f, -0.025919f, 0.007108f, 0.053876f, 0.095385f, 0.117384f, 0.111899f, 0.080757f, 0.040528f, 0.008248f, -0.014653f, -0.020973f, -0.041374f, -0.054183f, -0.061191f },
  { 0.000000f, 0.009959f, -0.019318f, -0.014014f, 0.010236f, 0.020776f, 0.005542f, -0.027518f, -0.042789f, -0.032092f, -0.020201f, -0.014932f, 0.002433f, 0.027443f, 0.030327f, -0.001394f, -0.038935f, -0.055594f, -0.051840f, -0.043314f, -0.024176f, -0.007625f, 0.003246f, -0.007388f, -0.037056f, -0.067790f, -0.080506f, -0.071600f, -0.051041f, -0.021743f, 0.015486f, 0.045955f, 0.063268f, 0.086021f, 0.100282f, 0.077927f, 0.041410f, 0.014208f, -0.005982f, -0.023148f, -0.045882f, -0.063262f, -0.062414f, -0.052576f, -0.043403f, -0.026894f, 0.003969f, 0.038442f, 0.054016f, 0.037612f, -0.001260f, -0.033442f, -0.039669f, -0.020595f, 0.008579f, 0.047225f, 0.082595f, 0.064871f, 0.013456f, -0.018341f, -0.030949f, -0.027404f, -0.011308f, 0.011627f, 0.044544f, 0.068682f, 0.075148f, 0.080035f, 0.091418f, 0.105594f, 0.098253f, 0.075519f, 0.054889f, 0.024994f, -0.019957f, -0.058625f, -0.071089f, -0.064748f, -0.041132f, -0.007644f, 0.021654f, 0.043574f, 0.048048f, 0.014407f, -0.025731f, -0.048258f, -0.058970f, -0.058253f, -0.043410f, -0.006474f, 0.021672f, 0.017232f, 0.003312f, -0.004028f, -0.018875f, -0.031424f, -0.030686f, -0.020287f, 0.004377f, 0.035200f, 0.079091f, 0.113050f, 0.125571f, 0.119178f, 0.100654f, 0.058641f, 0.003146f, -0.041085f, -0.067201f, -0.076744f, -0.075869f, -0.072064f, -0.064569f, -0.043931f, -0.020787f, 0.001673f, 0.014806f, 0.006002f, -0.007798f, -0.011026f, -0.006636f, -0.010761f, -0.013574f, -0.010137f, -0.013704f, -0.007323f, 0.002936f, 0.013623f, 0.010010f, -0.010209f, -0.033291f, -0.026771f, 0.001628f, 0.038576f, 0.100312f, 0.186109f, 0.245417f, 0.236759f, 0.168749f, 0.086999f, 0.034721f, -0.005240f, -0.026460f, -0.022820f, -0.018708f, -0.035126f, -0.064749f, -0.080651f, -0.056203f, -0.008283f, 0.021442f, 0.023164f, 0.016297f, 0.008258f, 0.011557f, -0.013308f, -0.046181f, -0.055552f, -0.043241f, -0.033660f, -0.048890f, -0.070419f, -0.071683f, -0.056619f, -0.044799f, -0.030065f, -0.009299f, 0.023777f, 0.061191f, 0.089596f, 0.103544f, 0.109184f, 0.119267f, 0.111334f, 0.089111f, 0.055909f, 0.026007f, -0.011653f, -0.049345f, -0.076600f, -0.089701f, -0.094705f, -0.103520f, -0.107612f, -0.080822f, -0.028332f, 0.023199f, 0.055797f, 0.060293f, 0.037062f, 0.003233f, -0.022766f, -0.014160f, -0.003553f, -0.006622f, -0.023148f, -0.042942f, -0.045935f, -0.044587f, -0.040335f },
  { 0.000000f, 0.001116f, -0.029798f, -0.047295f, -0.041764f, -0.015386f, 0.003502f, 0.003059f, -0.009435f, -0.018500f, -0.020769f, -0.020828f, -0.022559f, -0.024344f, -0.011468f, 0.025860f, 0.074748f, 0.099980f, 0.095034f, 0.076110f, 0.045296f, 0.012722f, -0.024489f, -0.059426f, -0.089649f, -0.099457f, -0.087505f, -0.067638f, -0.046187f, -0.019992f, 0.016389f, 0.055994f, 0.088376f, 0.104585f, 0.100392f, 0.076719f, 0.041441f, 0.011681f, -0.008032f, -0.020341f, -0.029373f, -0.044763f, -0.059963f, -0.063672f, -0.052691f, -0.037796f, -0.022091f, -0.003421f, 0.019113f, 0.046362f, 0.065548f, 0.064029f, 0.042216f, 0.012616f, -0.013246f, -0.036355f, -0.054814f, -0.059681f, -0.058787f, -0.052078f, -0.039210f, -0.023842f, -0.003619f, 0.026993f, 0.049010f, 0.062474f, 0.073813f, 0.079367f, 0.069422f, 0.049616f, 0.031878f, 0.017208f, -0.004907f, -0.031670f, -0.062661f, -0.080103f, -0.081105f, -0.070076f, -0.053567f, -0.033387f, -0.013170f, 0.006495f, 0.028593f, 0.044741f, 0.054413f, 0.061655f, 0.057040f, 0.031197f, -0.005753f, -0.037079f, -0.051166f, -0.050074f, -0.051981f, -0.062567f, -0.069003f, -0.053348f, -0.022089f, 0.009691f, 0.033763f, 0.047044f, 0.053392f, 0.056867f, 0.047675f, 0.028764f, 0.002209f, -0.025740f, -0.045625f, -0.050641f, -0.048496f, -0.047013f, -0.045432f, -0.035025f, -0.012204f, 0.008030f, 0.024455f, 0.038406f, 0.054888f, 0.071401f, 0.074896f, 0.062130f, 0.042166f, 0.017760f, -0.010564f, -0.038727f, -0.057471f, -0.064298f, -0.061371f, -0.050486f, -0.043534f, -0.033151f, -0.007206f, 0.031219f, 0.064177f, 0.078978f, 0.080004f, 0.070575f, 0.054462f, 0.031867f, 0.005669f, -0.022001f, -0.047934f, -0.070254f, -0.080524f, -0.073975f, -0.055635f, -0.031954f, -0.005570f, 0.023717f, 0.053921f, 0.074988f, 0.082378f, 0.080211f, 0.072229f, 0.050621f, 0.012482f, -0.025994f, -0.055699f, -0.074012f, -0.077852f, -0.073230f, -0.061531f, -0.044368f, -0.026496f, -0.001795f, 0.033301f, 0.063405f, 0.077288f, 0.075196f, 0.064944f, 0.051562f, 0.033857f, 0.009157f, -0.022403f, -0.053127f, -0.072590f, -0.073735f, -0.061401f, -0.049501f, -0.048634f, -0.043492f, -0.024250f, 0.011451f, 0.057997f, 0.096492f, 0.103352f, 0.079111f, 0.052449f, 0.028940f, 0.002605f, -0.031656f, -0.061421f, -0.074147f, -0.077050f, -0.079546f, -0.078697f, -0.062953f, -0.025484f, 0.022732f, 0.057714f, 0.080051f },
  { 0.000000f, 0.041547f, 0.022050f, -0.004010f, -0.018372f, -0.017865f, -0.020137f, -0.031845f, -0.037554f, -0.026294f, -0.010197f, -0.005027f, -0.005067f, -0.000535f, 0.019662f, 0.057251f, 0.084780f, 0.078103f, 0.045642f, -0.001814f, -0.050221f, -0.080725f, -0.092540f, -0.096022f, -0.093082f, -0.077150f, -0.047622f, -0.010252f, 0.031627f, 0.074251f, 0.103349f, 0.114195f, 0.103101f, 0.075720f, 0.044422f, 0.010383f, -0.026068f, -0.053013f, -0.061765f, -0.058673f, -0.055517f, -0.050338f, -0.032383f, 0.006797f, 0.051316f, 0.078016f, 0.081303f, 0.072234f, 0.061398f, 0.034921f, -0.006399f, -0.038824f, -0.056950f, -0.066992f, -0.071715f, -0.073466f, -0.064357f, -0.035804f, -0.003000f, 0.023615f, 0.043912f, 0.064465f, 0.087998f, 0.093074f, 0.064157f, 0.025944f, -0.003300f, -0.022231f, -0.033569f, -0.039438f, -0.043773f, -0.051902f, -0.054210f, -0.048531f, -0.035188f, -0.006863f, 0.030780f, 0.064073f, 0.079187f, 0.075994f, 0.065370f, 0.050955f, 0.027363f, 0.002873f, -0.021971f, -0.041695f, -0.049765f, -0.043922f, -0.033083f, -0.026014f, -0.014915f, 0.007728f, 0.038872f, 0.062850f, 0.052536f, 0.014041f, -0.026251f, -0.049961f, -0.062588f, -0.067986f, -0.067902f, -0.064062f, -0.053298f, -0.041906f, -0.027536f, -0.006662f, 0.025096f, 0.064328f, 0.102169f, 0.130792f, 0.132456f, 0.109988f, 0.061780f, 0.007284f, -0.028408f, -0.039126f, -0.041344f, -0.045460f, -0.051638f, -0.048441f, -0.032545f, -0.009301f, 0.012172f, 0.023121f, 0.021876f, 0.016826f, 0.013495f, 0.007063f, -0.004211f, -0.022175f, -0.040392f, -0.052430f, -0.060048f, -0.072202f, -0.083264f, -0.079410f, -0.041948f, 0.010874f, 0.051040f, 0.073872f, 0.086028f, 0.088894f, 0.076446f, 0.048867f, 0.012723f, -0.012875f, -0.027830f, -0.040066f, -0.054921f, -0.060054f, -0.044465f, -0.025886f, -0.007632f, 0.009452f, 0.025435f, 0.039641f, 0.040545f, 0.027961f, 0.013606f, 0.000878f, -0.014552f, -0.032760f, -0.047205f, -0.048767f, -0.039489f, -0.036883f, -0.032937f, -0.006654f, 0.032932f, 0.071961f, 0.097045f, 0.100239f, 0.083218f, 0.054391f, 0.019874f, -0.009527f, -0.026000f, -0.033448f, -0.028967f, -0.025834f, -0.032707f, -0.041135f, -0.043845f, -0.031867f, -0.008800f, 0.017201f, 0.038389f, 0.052205f, 0.058827f, 0.048611f, 0.016755f, -0.013950f, -0.037690f, -0.058437f, -0.071951f, -0.082146f, -0.078701f, -0.054669f, -0.020357f, 0.012093f },
  { 0.000000f, -0.093011f, -0.078441f, -0.050088f, 0.008455f, 0.040557f, 0.031638f, 0.022470f, 0.017840f, 0.013291f, 0.017875f, 0.026881f, 0.021709f, 0.017361f, 0.026461f, 0.054294f, 0.066272f, 0.052051f, 0.031154f, 0.005895f, -0.032615f, -0.082245f, -0.103927f, -0.079494f, -0.014019f, 0.057257f, 0.111927f, 0.143365f, 0.131944f, 0.091268f, 0.048155f, 0.010315f, -0.015328f, -0.035781f, -0.057138f, -0.058688f, -0.047015f, -0.040099f, -0.030734f, -0.013595f, 0.015900f, 0.028418f, 0.026176f, 0.014670f, 0.015489f, 0.019893f, 0.011573f, -0.010243f, -0.024989f, -0.022882f, -0.004576f, 0.018726f, 0.047848f, 0.073522f, 0.091024f, 0.094450f, 0.086005f, 0.070509f, 0.047078f, 0.021601f, -0.027590f, -0.082746f, -0.119867f, -0.121657f, -0.089000f, -0.048788f, -0.020526f, 0.014999f, 0.038699f, 0.055656f, 0.065836f, 0.054909f, 0.031404f, 0.011238f, -0.002331f, -0.039070f, -0.047445f, -0.048177f, -0.036441f, -0.020844f, -0.002284f, 0.025881f, 0.055740f, 0.066661f, 0.065429f, 0.054764f, 0.028634f, 0.002930f, -0.024028f, -0.056993f, -0.073645f, -0.070744f, -0.055333f, -0.035933f, -0.013849f, 0.007738f, 0.013329f, 0.009947f, 0.001833f, -0.012632f, -0.011324f, -0.012614f, -0.021311f, -0.021591f, -0.018097f, -0.017425f, -0.019500f, -0.013868f, 0.022229f, 0.080711f, 0.119526f, 0.135713f, 0.134071f, 0.118006f, 0.085398f, 0.032412f, -0.025331f, -0.065992f, -0.068451f, -0.040567f, -0.004174f, 0.020191f, 0.030254f, 0.035200f, 0.026869f, 0.016496f, 0.011189f, 0.008475f, -0.000028f, -0.008546f, -0.033741f, -0.052074f, -0.051488f, -0.034480f, -0.023706f, -0.006217f, 0.024878f, 0.063429f, 0.095244f, 0.098432f, 0.069238f, 0.026178f, -0.021459f, -0.066541f, -0.079664f, -0.055807f, -0.012019f, 0.044927f, 0.037962f, 0.012342f, -0.008985f, -0.015730f, -0.004834f, 0.008440f, 0.014464f, 0.009195f, -0.002981f, -0.034643f, -0.052381f, -0.057490f, -0.046951f, -0.036282f, 0.005376f, 0.081048f, 0.137591f, 0.150271f, 0.119743f, 0.069142f, 0.045155f, 0.033567f, -0.006776f, -0.048876f, -0.054409f, -0.031779f, -0.021807f, -0.048000f, -0.059733f, -0.049262f, -0.020983f, 0.008289f, 0.024364f, 0.038751f, 0.045088f, 0.019971f, -0.016126f, -0.046076f, -0.070032f, -0.072887f, -0.036316f, 0.028091f, 0.070080f, 0.064977f, 0.055356f, 0.059657f, 0.056609f, 0.035304f, 0.010837f, -0.010197f, -0.024731f, -0.035453f },
  { 0.000000f, 0.035233f, 0.032839f, 0.045216f, 0.026713f, -0.039849f, -0.080169f, -0.038965f, 0.044449f, 0.069071f, 0.060652f, 0.055518f, 0.048233f, 0.006642f, -0.044666f, -0.078368f, -0.075557f, -0.048690f, -0.028783f, -0.032795f, -0.050391f, -0.057484f, -0.039153f, 0.010176f, 0.078439f, 0.142776f, 0.160496f, 0.135551f, 0.088962f, 0.041380f, 0.013842f, 0.028365f, 0.045196f, 0.044037f, 0.049286f, 0.045850f, 0.024959f, -0.007567f, -0.026121f, -0.017389f, 0.021509f, 0.076990f, 0.106828f, 0.107603f, 0.053329f, -0.003372f, -0.027879f, -0.013054f, 0.043770f, 0.114717f, 0.142786f, 0.126563f, 0.090451f, 0.048673f, -0.000525f, -0.049959f, -0.089941f, -0.094279f, -0.061617f, -0.014004f, 0.031144f, 0.054818f, 0.051286f, 0.041051f, 0.009657f, -0.008045f, -0.018458f, -0.022181f, -0.011430f, 0.003987f, -0.001170f, -0.014183f, -0.016087f, -0.001199f, 0.020277f, 0.033625f, 0.058871f, 0.094499f, 0.122064f, 0.137937f, 0.113162f, 0.052054f, -0.006581f, -0.017137f, 0.016405f, 0.070476f, 0.117565f, 0.117079f, 0.078469f, 0.013405f, -0.033448f, -0.051600f, -0.042033f, -0.018408f, -0.006861f, -0.017706f, -0.026313f, -0.007053f, 0.021785f, 0.047762f, 0.057264f, 0.090563f, 0.131710f, 0.128230f, 0.083016f, 0.030338f, -0.008912f, -0.032061f, -0.047101f, -0.048871f, -0.022579f, 0.020122f, 0.038066f, 0.028449f, -0.003904f, -0.038790f, -0.036986f, -0.007693f, 0.015258f, 0.017483f, 0.005223f, -0.000582f, 0.018304f, 0.016323f, -0.005638f, -0.022442f, 0.015746f, 0.100804f, 0.172490f, 0.179163f, 0.131323f, 0.061539f, 0.009775f, -0.021743f, -0.034238f, -0.041425f, -0.048155f, -0.050026f, -0.049178f, -0.056879f, -0.067452f, -0.076045f, -0.060120f, -0.029209f, -0.003647f, 0.004519f, -0.006247f, -0.010865f, -0.018739f, -0.046213f, -0.090422f, -0.087168f, -0.058825f, 0.000807f, 0.072361f, 0.090890f, 0.061530f, 0.015010f, -0.027305f, -0.074058f, -0.103391f, -0.103918f, -0.061647f, -0.007175f, 0.019726f, 0.030261f, 0.054810f, 0.080736f, 0.050803f, -0.006966f, -0.048631f, -0.054250f, -0.040287f, -0.039374f, -0.038706f, -0.026871f, -0.019679f, -0.010450f, 0.015583f, 0.043745f, 0.053708f, 0.044086f, 0.024237f, -0.012851f, -0.079147f, -0.124396f, -0.129414f, -0.107716f, -0.088739f, -0.096066f, -0.101400f, -0.101944f, -0.094959f, -0.081271f, -0.060989f, -0.041347f, -0.054511f, -0.065646f, -0.068827f, -0.092104f },
};

const float TEMPO_LR_B[TEMPO_LR_N_CLASS] = {
  0.278264f, -0.112649f, -0.005293f, 0.494971f, -0.541826f, -0.421809f, 0.368487f, 0.206692f, 0.089134f, 0.040280f, 0.167791f, -0.382016f, 0.454118f, -0.066330f, -0.100816f, -0.257569f, 0.743780f, 0.445953f, 0.169870f, -0.081928f, -0.548431f, -0.712674f, 0.435132f, -0.552161f, -0.355564f, -0.265350f, 0.509945f
};

const float TEMPO_LR_MEAN[TEMPO_LR_N_FEAT] = {
  1.000000f, 0.813047f, 0.525511f, 0.318477f, 0.206763f, 0.157240f, 0.136922f, 0.132108f, 0.137834f, 0.150673f, 0.166754f, 0.182463f, 0.195677f, 0.205452f, 0.212069f, 0.217361f, 0.222721f, 0.228460f, 0.234349f, 0.240369f, 0.246929f, 0.254318f, 0.261566f, 0.266384f, 0.267438f, 0.264768f, 0.258874f, 0.249086f, 0.237006f, 0.226657f, 0.221752f, 0.223740f, 0.231260f, 0.241526f, 0.252300f, 0.261352f, 0.266971f, 0.269130f, 0.269306f, 0.267248f, 0.262100f, 0.254108f, 0.245485f, 0.239163f, 0.235765f, 0.234038f, 0.232240f, 0.230164f, 0.229216f, 0.231267f, 0.237300f, 0.245716f, 0.253540f, 0.257256f, 0.255593f, 0.250716f, 0.245845f, 0.243551f, 0.243986f, 0.245279f, 0.245082f, 0.243234f, 0.240881f, 0.239683f, 0.240857f, 0.243784f, 0.246187f, 0.246152f, 0.244024f, 0.240122f, 0.234998f, 0.229427f, 0.224422f, 0.221541f, 0.222928f, 0.228880f, 0.238547f, 0.249942f, 0.259519f, 0.263208f, 0.259367f, 0.250011f, 0.239318f, 0.231416f, 0.227898f, 0.228650f, 0.232601f, 0.237946f, 0.242347f, 0.244025f, 0.243713f, 0.242069f, 0.238461f, 0.233591f, 0.229000f, 0.225860f, 0.224356f, 0.224162f, 0.225622f, 0.228208f, 0.231071f, 0.234222f, 0.238399f, 0.242667f, 0.245827f, 0.247495f, 0.247349f, 0.244927f, 0.240307f, 0.234423f, 0.227848f, 0.221897f, 0.218180f, 0.217670f, 0.221028f, 0.227373f, 0.235180f, 0.243890f, 0.252318f, 0.258099f, 0.259237f, 0.255863f, 0.249184f, 0.240534f, 0.231205f, 0.223113f, 0.217731f, 0.215813f, 0.216727f, 0.218810f, 0.221005f, 0.222427f, 0.222982f, 0.222780f, 0.223322f, 0.226392f, 0.232389f, 0.240379f, 0.247720f, 0.252472f, 0.253188f, 0.250562f, 0.245700f, 0.239702f, 0.233303f, 0.226223f, 0.219219f, 0.214026f, 0.211429f, 0.212075f, 0.215731f, 0.221981f, 0.229846f, 0.238793f, 0.247681f, 0.255014f, 0.260734f, 0.263744f, 0.263088f, 0.257718f, 0.246944f, 0.232407f, 0.217850f, 0.206976f, 0.201053f, 0.199459f, 0.200907f, 0.204969f, 0.210813f, 0.217432f, 0.224275f, 0.230563f, 0.236003f, 0.240063f, 0.242404f, 0.242555f, 0.241000f, 0.239166f, 0.238349f, 0.238599f, 0.240511f, 0.243450f, 0.245544f, 0.245281f, 0.241544f, 0.234687f, 0.226668f, 0.218971f, 0.212504f, 0.209027f, 0.209837f, 0.214618f, 0.220915f, 0.226561f, 0.230195f, 0.231814f, 0.232870f, 0.233789f, 0.234243f, 0.233675f
};

const float TEMPO_LR_SCALE[TEMPO_LR_N_FEAT] = {
  1.000000f, 0.034155f, 0.059682f, 0.060627f, 0.052801f, 0.048311f, 0.046267f, 0.046568f, 0.052256f, 0.064162f, 0.079063f, 0.092447f, 0.100328f, 0.101642f, 0.097866f, 0.095132f, 0.098410f, 0.105874f, 0.111523f, 0.112135f, 0.110092f, 0.110618f, 0.114214f, 0.115973f, 0.116292f, 0.121409f, 0.128967f, 0.128604f, 0.119003f, 0.107298f, 0.101536f, 0.103265f, 0.109985f, 0.117660f, 0.122898f, 0.123564f, 0.120502f, 0.118764f, 0.124574f, 0.133490f, 0.134031f, 0.123984f, 0.111351f, 0.105726f, 0.107779f, 0.111293f, 0.112788f, 0.111077f, 0.107403f, 0.105262f, 0.110021f, 0.121377f, 0.131623f, 0.132665f, 0.124663f, 0.112367f, 0.103093f, 0.102707f, 0.109913f, 0.118171f, 0.121281f, 0.116165f, 0.105503f, 0.097212f, 0.098204f, 0.105585f, 0.111627f, 0.113385f, 0.113847f, 0.115593f, 0.116828f, 0.115591f, 0.110808f, 0.102226f, 0.095378f, 0.096251f, 0.104146f, 0.115174f, 0.124979f, 0.128561f, 0.122050f, 0.108553f, 0.096192f, 0.091502f, 0.092847f, 0.097779f, 0.106138f, 0.113056f, 0.114037f, 0.110222f, 0.107453f, 0.106919f, 0.104189f, 0.098485f, 0.093792f, 0.094762f, 0.099163f, 0.102861f, 0.105908f, 0.107297f, 0.105730f, 0.103749f, 0.105804f, 0.110813f, 0.113874f, 0.113114f, 0.111036f, 0.110113f, 0.110608f, 0.111011f, 0.108082f, 0.101311f, 0.094837f, 0.092795f, 0.094488f, 0.096675f, 0.099051f, 0.103143f, 0.108245f, 0.111789f, 0.112111f, 0.109514f, 0.106065f, 0.102210f, 0.097470f, 0.092362f, 0.088823f, 0.088524f, 0.091630f, 0.096706f, 0.102658f, 0.107364f, 0.108611f, 0.104757f, 0.097004f, 0.090175f, 0.091584f, 0.100986f, 0.111467f, 0.118057f, 0.117113f, 0.110110f, 0.103341f, 0.102431f, 0.106370f, 0.108147f, 0.103109f, 0.093404f, 0.086581f, 0.089016f, 0.098155f, 0.105777f, 0.106845f, 0.102496f, 0.097864f, 0.096512f, 0.098394f, 0.103743f, 0.110423f, 0.113462f, 0.109585f, 0.099808f, 0.088627f, 0.081241f, 0.079989f, 0.083409f, 0.088502f, 0.093631f, 0.097063f, 0.098090f, 0.098617f, 0.101092f, 0.104936f, 0.107511f, 0.108009f, 0.107254f, 0.106343f, 0.103823f, 0.099726f, 0.098010f, 0.099722f, 0.101691f, 0.101455f, 0.100569f, 0.101650f, 0.103084f, 0.102245f, 0.098445f, 0.092347f, 0.088240f, 0.091049f, 0.100463f, 0.109121f, 0.111108f, 0.105724f, 0.096678f, 0.090237f, 0.090635f, 0.095992f, 0.101255f
};
